[array([-2.02568126e-02, -1.38108078e-02,  5.55970704e-03, -3.58866925e-02,
        3.86067279e-02,  1.16323980e-01,  1.37263795e-01,  3.62936151e-02,
        8.87808623e-04,  5.30490470e-02, -3.76936523e-02,  2.09016878e-02,
       -2.59852855e-02, -9.22626661e-03, -5.17699372e-02, -2.23733266e-02,
       -8.95150083e-02, -2.04227368e-04,  7.57061094e-02, -2.48383110e-02,
        4.81555255e-03, -1.36931086e-03,  1.76689396e-01,  6.71820232e-03,
       -4.08508405e-02, -4.22821580e-02,  5.18201389e-02,  6.33594037e-02,
       -3.79909286e-02, -7.31253016e-02,  7.69239369e-02, -4.50168414e-02,
       -2.09913657e-02,  3.91885791e-02, -2.16612218e-02, -7.02912166e-04,
        3.18577429e-01, -1.38971134e-02,  7.30523654e-02,  6.70617328e-02,
       -3.20086913e-02,  2.12171342e-02,  3.16190233e-04, -9.34385397e-02,
        6.07676988e-02, -2.80197963e-02,  2.99263338e-01,  8.57752558e-03,
        6.24068580e-02, -3.24326105e-02]), array([-0.01745326,  0.01496977, -0.00396871,  0.06576433,  0.00709629,
        0.10473193,  0.12613156,  0.02648746,  0.00345175,  0.02847038,
       -0.01592296,  0.05702721, -0.0525634 ,  0.03720841, -0.03651411,
       -0.11005195, -0.00581244, -0.07954362,  0.04083694, -0.00401032,
       -0.01144639,  0.01789965,  0.31293165,  0.0109235 , -0.01687185,
       -0.05354234,  0.05253705,  0.05618892, -0.00962277,  0.01529593,
       -0.02638742, -0.02200449, -0.01428703,  0.01352624, -0.04607411,
       -0.02989986,  0.27411349, -0.0513928 ,  0.02782852,  0.08028106,
       -0.12303892,  0.12333802, -0.00364102,  0.00559547,  0.09931902,
       -0.00240727,  0.13527969, -0.00179704,  0.05291591, -0.05189605]), array([-0.01707376, -0.00607646,  0.01066242,  0.15233812,  0.01101041,
        0.07023389,  0.12855978,  0.02444167,  0.0171861 , -0.04560393,
       -0.02486498, -0.00230084, -0.04362832,  0.03528114, -0.03716411,
       -0.06887916,  0.02320017, -0.07459269, -0.09276991, -0.02365954,
       -0.0017629 ,  0.00071919,  0.41619429,  0.00346796, -0.05457607,
       -0.01569342,  0.03562281,  0.06268399,  0.06922239, -0.03480715,
       -0.02821735, -0.05676898, -0.00208039,  0.02542431, -0.02865398,
       -0.00454074,  0.20502673,  0.00691593, -0.00550342,  0.11212267,
       -0.0059522 ,  0.10465447, -0.00045426,  0.04004604,  0.03178877,
        0.01444668,  0.12131973, -0.01299254,  0.01125831, -0.04521086]), array([-0.05230138,  0.03442626,  0.00368808,  0.11295916,  0.02385351,
        0.0571455 ,  0.13231352,  0.00568929,  0.01216227, -0.11260067,
       -0.02611198, -0.00960952, -0.02258376,  0.03082461, -0.01649806,
        0.01600917,  0.04287285, -0.07090286, -0.07131772, -0.03246842,
       -0.02227944,  0.00276026,  0.53059088,  0.01192405, -0.07776798,
        0.06527725,  0.04829007,  0.04596523,  0.00076495, -0.06311468,
        0.01220617, -0.10014788,  0.01672785,  0.03584731, -0.0281047 ,
        0.00418567,  0.17668486, -0.00206606,  0.02510357,  0.13349089,
        0.00561914,  0.10250483, -0.0167596 , -0.00226338,  0.01670575,
       -0.006469  ,  0.09476733, -0.02514595,  0.00631274, -0.04915999]), array([-0.06850055,  0.02727843,  0.0098617 ,  0.10356999,  0.02354867,
        0.04919568,  0.12510919,  0.02283856,  0.00723144, -0.09926505,
       -0.00762138, -0.00233801, -0.01204869,  0.01631066, -0.01519048,
        0.05243906,  0.03349625, -0.05912182, -0.05944692, -0.04081547,
       -0.03885645, -0.00595404,  0.48473262, -0.00726179, -0.07269719,
        0.07555355,  0.05789123,  0.03788897, -0.01865123, -0.05498588,
        0.02923568, -0.07691882,  0.00635512,  0.03528623, -0.03640288,
        0.00320928,  0.1746803 , -0.00222191,  0.00715926,  0.12109381,
       -0.01740055,  0.13089144, -0.01418861,  0.01682893,  0.02901455,
       -0.01800824,  0.10527169, -0.01541264, -0.00829552, -0.03436814]), array([-0.08247031,  0.01959042,  0.02073666,  0.0868452 ,  0.01360815,
        0.05520871,  0.09944943,  0.02430091,  0.0074554 , -0.05003025,
        0.0050366 , -0.00251255,  0.00835933,  0.07129426, -0.01869832,
        0.05863919,  0.04213176, -0.07448582, -0.0530419 , -0.07009663,
       -0.05453281, -0.0062627 ,  0.5529454 ,  0.00827156, -0.06958703,
        0.04911323,  0.0694517 ,  0.04393376,  0.02192187, -0.05511743,
       -0.00646151, -0.07320934, -0.00898466,  0.03680937, -0.05481194,
       -0.00929813,  0.16233078, -0.00558922, -0.00419672,  0.06613318,
       -0.00765082,  0.13544964, -0.00489533,  0.02930765,  0.00650521,
       -0.01077771,  0.07018165, -0.00978341,  0.00391983, -0.03643633]), array([-0.06943881,  0.01309932,  0.02500997,  0.09149016,  0.02934425,
        0.05799192,  0.09400711,  0.01987665,  0.00066638, -0.04804759,
        0.01732624, -0.00121908,  0.00362316,  0.07059194, -0.01151467,
        0.04740229,  0.06749085, -0.06709987, -0.05411007, -0.0571156 ,
       -0.04932792, -0.0211297 ,  0.50294587, -0.01223402, -0.06195702,
        0.04608614,  0.05301412,  0.03561282,  0.01656574, -0.03142883,
       -0.01839825, -0.05407931, -0.00994693,  0.02802818, -0.07666426,
       -0.0081194 ,  0.1907061 ,  0.001788  , -0.01236404,  0.06138531,
       -0.0275918 ,  0.13234808,  0.00890166,  0.03015114,  0.0016703 ,
       -0.00073988,  0.07023494, -0.00780134,  0.02344862, -0.04047889]), array([-0.06243711,  0.01460398,  0.01772193,  0.07961805,  0.04574931,
        0.06802223,  0.09483871,  0.01948148, -0.01135332, -0.06878284,
        0.02152034,  0.00485219,  0.00089643,  0.06552935,  0.0188705 ,
        0.04256469,  0.08241635, -0.10189538, -0.06316638, -0.01250983,
       -0.0487869 ,  0.02189727,  0.4842752 , -0.00600061, -0.04175123,
        0.02445386,  0.0654274 ,  0.02502406,  0.03049578, -0.04984404,
       -0.00142815, -0.04654827,  0.00098968,  0.02841331, -0.08323027,
       -0.02331954,  0.20636297,  0.01452238, -0.0165296 ,  0.06105976,
       -0.01665526,  0.11970847, -0.00215494,  0.01694203, -0.07938962,
       -0.00082543,  0.08844909, -0.00581752,  0.01913597, -0.04141654]), array([-0.06090755,  0.01408678,  0.00462253,  0.07197835,  0.0621261 ,
        0.0538155 ,  0.10398128,  0.0146117 , -0.01718276, -0.06244089,
        0.01970676,  0.00541852, -0.00866288,  0.05735164,  0.11310738,
        0.05366667,  0.07627857, -0.11729814, -0.06980298, -0.00175267,
       -0.05419677,  0.05596391,  0.44551263, -0.00689648, -0.04890747,
       -0.00833257,  0.06815164,  0.02340485,  0.0531356 , -0.05384029,
       -0.01064492, -0.04794733,  0.01376838,  0.0398769 , -0.09664384,
       -0.04403532,  0.19909976,  0.03493188,  0.0102146 ,  0.05581928,
       -0.0100702 ,  0.11421041, -0.00542064, -0.00913271, -0.11452695,
        0.00354512,  0.10033846, -0.00161658,  0.01809698, -0.03656226]), array([-6.56243713e-02,  1.04550040e-02,  4.80901138e-04,  6.35862551e-02,
        5.73662446e-02,  6.47595245e-02,  1.03827866e-01,  1.90495089e-02,
       -1.92222089e-02, -6.18700541e-02,  3.79795791e-03,  1.17928668e-02,
       -1.28600651e-02,  6.48470430e-02,  1.12956704e-01,  4.20351527e-02,
        8.54075356e-02, -1.28590196e-01, -6.77647809e-02, -6.07257759e-03,
       -4.70904814e-02,  6.67805289e-02,  4.88261920e-01,  2.54056341e-03,
       -5.68141643e-02, -1.15075753e-02,  6.67045869e-02,  2.16413730e-02,
        3.95209151e-02, -5.59525919e-02, -1.02194171e-02, -3.27702300e-02,
        2.07140646e-03,  3.93395495e-02, -7.54914081e-02, -5.08371683e-02,
        2.12788163e-01,  4.51021184e-02,  1.30832641e-02,  5.83465279e-02,
       -2.19830326e-03,  9.95464684e-02, -1.21058327e-02, -1.96212623e-02,
       -1.66187256e-01,  1.11808984e-02,  1.16453685e-01,  6.96443742e-04,
        2.42147528e-02, -4.58357831e-02])]