[array([ 0.44064734, -0.82452972,  0.56145422, -1.10703851, -0.5367405 ,
        0.75238248, -0.28645107,  0.11407722, -0.11508997,  0.38026355,
        0.4545679 , -1.90891046, -1.13651402, -1.07342202, -1.45098612,
        0.85562833, -0.40719932,  2.94538213,  1.07681626, -2.54301149,
       -0.68368921, -0.33929359,  0.91400562,  1.01199466,  0.36700232,
        1.50575   ,  1.2838142 ,  0.89635764, -1.1250958 , -1.01556982,
       -0.88408166, -0.9302945 ,  0.07249702,  0.21050769,  1.41991261,
        0.12725458, -0.13859197,  0.86940269, -1.01510533, -0.28087757,
       -0.79235618, -1.75524054,  0.49062067, -1.22131165,  1.82127564,
        0.63028756, -0.8268444 ,  0.22983415,  0.27869799,  3.68781094,
        0.97227115]), array([ 0.98180884,  0.9172072 ,  0.40226694, -0.36624427,  2.02624301,
        0.60537766,  1.00237932, -0.71562863, -0.43859626, -0.28713179,
       -0.86007673, -0.43105461,  0.71188231, -0.36176735, -0.31356762,
       -0.36664002, -0.02879131, -1.37939331, -0.25054997,  0.33243455,
        0.34967284,  1.70118355, -0.51110538,  0.49581757, -0.49396244,
       -0.54632126, -1.13307123, -1.08115808, -0.5363125 ,  0.16168082,
        1.11630473, -0.89280753,  0.25539337,  1.90911739,  1.52050922,
        0.47909819, -2.11121589, -0.10982037,  3.29636866,  0.45032367,
        0.60087201, -0.27718235, -0.93057657, -0.34373874,  0.43907724,
       -0.48349419, -1.71044689, -0.67098387, -1.54013627,  0.41675635,
        0.96709109]), array([ 1.23900408, -1.04421709, -0.60152459,  0.21271829, -1.13466394,
       -0.32116224,  0.10415721,  1.20307021,  1.32073149, -0.53418529,
        0.53958523,  0.71509812, -0.53447776,  0.18080559, -0.17438148,
       -0.20725158,  0.41066868,  3.20113846, -0.724721  , -0.58989569,
        0.41667441,  0.44298449, -0.50429938,  0.92716807, -0.7822789 ,
        0.91213642,  0.07389079, -0.58840554, -0.19878523,  0.22324694,
       -0.89780122, -1.40614161,  0.45030328,  0.83582952,  1.03154911,
       -0.08648984, -1.94883723, -0.15337781,  0.01488799,  0.88605259,
        0.80944613, -1.79574403, -0.26837823, -0.17960519,  0.1736404 ,
       -1.31224462, -0.14151983,  0.47140654,  1.14590186, -0.81170661,
        0.97550614]), array([ 1.21512917,  0.15470982,  0.07271693,  0.13936582, -0.8473492 ,
       -1.18427693,  0.23096257, -1.0116731 , -0.14474091, -1.14611004,
        0.09057415,  0.65168465, -0.23799403,  0.10012938,  1.43034475,
       -0.9077488 ,  0.00506245,  1.83313154, -1.23556874, -1.58112264,
       -0.23027959,  1.41000076,  0.91322549,  2.39665519,  0.28490301,
       -1.37890428,  0.52691749,  1.34398761, -0.07501797, -2.16375478,
       -1.53880835, -0.9205001 ,  0.19669161,  0.82986249,  0.71190229,
       -1.33008074, -0.42103665,  0.3481984 ,  0.0126723 ,  0.7558168 ,
       -0.33492925, -0.17237622, -1.18733153,  0.47326395, -1.99704643,
        0.18883657,  0.49540768, -0.01140855,  0.47028654,  3.77561943,
        0.97298155]), array([ 0.38146452,  1.12850649,  0.77257916,  0.7421035 ,  0.39499158,
        0.82690024,  0.61654563,  1.0389103 , -0.07938242, -0.93443488,
        1.76163748, -0.11007254,  0.93889684, -1.96999149, -0.62963444,
        0.48335476, -0.00545758,  1.28038892, -0.32538747,  0.20209983,
       -0.90103326,  0.58410773, -1.19393047, -1.01817852, -0.5735974 ,
        0.9320523 ,  0.87214833, -0.90540846, -1.07664806, -0.94203405,
        1.57137954, -1.9768389 ,  2.19657184,  1.30689147,  0.04150075,
       -1.2324039 , -0.71076998,  0.79054967,  0.58695361, -0.11560165,
       -0.86387268, -0.82340925, -1.32292916, -0.57205893, -0.07331074,
       -0.64031454, -0.65878265,  0.64302552, -0.13589322,  0.69781662,
        0.97405113]), array([ 1.13409053, -1.24923285, -0.23862485,  1.18336948, -0.87700612,
       -0.8023239 , -0.58360893,  0.91662926,  0.30121347, -0.38351273,
       -0.46416628, -0.32624404,  1.33785694,  0.66741211,  0.35930456,
       -0.63356571,  0.22316788,  0.77977086, -1.02100801, -0.48179643,
       -1.03795042,  0.52282742, -0.81922705,  0.5254834 , -0.22792592,
       -1.27116856,  1.66617537, -0.44102389,  0.64770662,  0.05310104,
        1.83913513, -1.06823   ,  0.97233441,  0.86769532,  0.19265079,
       -0.02148422,  0.10790531,  1.84855584,  0.18405424, -1.59066527,
        1.45319491, -1.69215581, -0.37160395, -1.29920796,  1.63771362,
        0.0434939 ,  0.30560109, -0.60922413,  0.02945818, -1.28894467,
        0.96604356]), array([-0.42756731,  1.71321711, -0.42779978,  1.34685718, -2.2153835 ,
        0.10333687, -0.55459497,  0.94219882, -0.71217987, -0.63596346,
       -0.52753074, -0.17210055, -0.41711229, -1.01915362, -0.4706539 ,
        0.97027642,  0.55623725, -0.74634087,  0.26665089,  0.67002832,
        1.5860227 ,  0.30795746,  1.62067013,  0.53880059,  0.8273923 ,
        0.25947113,  1.09019531,  1.6172915 , -0.54954889, -1.77006931,
        0.40058646, -1.07727331,  0.22744239, -0.20313453, -0.7206614 ,
       -0.59255453,  0.62488279, -1.10761623,  0.35942959,  1.23371301,
       -0.4043832 ,  0.51958336, -0.06781232, -0.29836839,  0.0095821 ,
       -1.14906809, -2.35298385, -0.27494421,  0.07816891,  2.02480654,
        0.96048885]), array([-7.89838304e-01, -8.23651578e-01,  8.68442645e-02,  9.98649377e-01,
       -1.03437139e+00, -6.14668190e-01,  6.87957859e-01,  1.16247377e+00,
        4.40886452e-01,  7.31771545e-01, -1.22566985e+00, -6.97404711e-01,
       -2.61398535e-03, -1.02097543e+00, -1.56676330e+00, -8.27324029e-02,
        1.15676501e-01,  1.35013901e-01,  3.61488871e-02, -6.02890752e-01,
        1.28713916e+00, -8.72386035e-02, -1.60451289e-01, -2.43561646e+00,
        2.53392312e-01,  1.34974576e+00, -1.30276678e-01,  2.47054878e+00,
       -3.14403336e-01,  4.41018500e-01,  1.78350920e-01,  3.55473588e-01,
       -5.04363559e-01,  1.24742513e+00,  1.05846770e+00,  6.63371317e-01,
       -8.38027359e-01, -1.20573896e-01,  1.88798263e+00,  9.64857154e-01,
        5.37058316e-01, -6.10760798e-01, -1.75800682e+00, -5.45333727e-01,
       -1.12188405e+00, -1.11332372e+00, -1.84179962e-01,  7.29760567e-02,
       -1.07329847e+00,  3.29608873e+00,  9.69718700e-01]), array([ 0.39760003,  0.89502409, -1.3503028 ,  2.41287061, -1.58766918,
        0.48282715, -1.44651576,  1.30281538, -1.15187177, -0.75502363,
       -0.82378231,  0.6943829 ,  1.31080298, -1.05266302,  0.43743163,
        0.33389888,  0.83013735,  1.10971538,  0.4320166 ,  1.59251225,
       -0.51964501,  1.44401943, -1.61003988,  0.84686991, -0.35221609,
       -1.6763895 ,  0.99968788,  0.59388464, -1.3232299 , -0.62855161,
        0.26311969,  0.53711454,  2.10907058, -0.00308593,  1.01590342,
       -2.59042198, -1.1949136 , -0.57020988, -0.60467254,  0.74526055,
       -0.51942551, -0.45940862, -0.60614744,  0.72843683,  0.60161643,
        0.45163341,  0.89629337, -0.9318348 ,  1.03452924, -1.74145436,
        0.97051277]), array([ 0.3823073 , -0.03515908, -0.06996358,  1.35604906,  0.25322604,
       -1.36172164, -0.95611246,  0.43792529,  0.49765142,  0.85682432,
       -0.81753062,  0.70828391,  0.93880287, -1.31530716,  1.09965944,
       -0.01917381, -0.79909647,  1.30981487,  1.39983838,  0.13144153,
       -0.48581909, -1.20998764,  1.6162572 , -1.12078926, -0.49687522,
       -0.82067459,  2.20834413, -0.04580714,  2.21219158,  1.61970848,
        0.70667868, -0.2814852 , -0.63674545,  1.19476883, -1.19456197,
       -1.31287012, -0.29996542, -0.10030127,  0.75627478,  2.0438009 ,
       -0.32722852,  0.14744368, -0.83928447,  0.38754084,  0.36740493,
        0.56908803, -1.48687475, -1.4513341 , -0.21895388, -4.49770357,
        0.96614941])]